{
  "capa1": {
    "weights": [
      [
        -0.32654450356785025, -0.014543656745987649, 0.0004575851730144607,
        -0.014398102367271971, -0.2478507180072501, -0.19165177431251942,
        0.001549474256969163, -0.22725629242249293, -0.0202320467779929,
        -0.01980796468223927
      ],
      [
        0.6416128940681696, 0.0015634896910398006, 0.012302906807277207,
        0.02296397961675629, 0.6305775220594146, 0.6351024297933457,
        -0.010485529650670926, 0.6232283738302596, -0.027221296851215104,
        0.019507753952317897
      ],
      [
        0.0004930376062654935, -0.004380743016111864, -0.012527953600499263,
        -0.005074171775779676, -0.006239325909520632, -0.009523873675775547,
        -0.008954665611936757, -0.008838654984006608, -0.015352624291224208,
        -0.011806321841224121
      ],
      [
        -0.04325135379459773, 0.0042833187053041765, 0.0006651722238316789,
        -0.008713204077000436, -0.027485637594815666, -0.06418264482598221,
        -0.00672460447775951, -0.14426623398564709, 0.0011518362237432416,
        -0.01726282602331677
      ],
      [
        -0.06592851092492294, -0.004017809362082619, -0.016301983469660445,
        -0.005560643353537072, -0.0469685177746668, 0.0797205403660262,
        0.0072909056217753685, -0.04239759762280643, -0.0010070172506294072,
        -0.012348258203536527
      ],
      [
        -6.738779026650019e-5, -0.006848100909403132, -0.008707971491818818,
        -0.01798399023126116, 0.0011395452222847308, -0.0005723600846505344,
        -0.011651498407833565, 0.005211381983639788, -0.007069143056287655,
        -0.015362436862772237
      ]
    ],
    "bias": [
      [
        0.6267948264129907, 0.0, 0.0, -0.012586162730122943, 0.6250279956848649,
        0.6757310112137938, 0.0, 0.6146521327845405, -0.010836680961191556, 0.0
      ]
    ]
  },
  "capa2": {
    "weights": [
      [-0.3830484723406343, 0.4168898860388962],
      [0.011787795711596508, -0.0017992483581235092],
      [-0.010707526215105425, 0.010544517269311366],
      [0.007393705927269595, 0.000798975306822883],
      [-0.4943722737281086, 0.5062214138737143],
      [-0.4275729823687819, 0.4382023780224455],
      [0.00010500020720820478, 0.01785870493905835],
      [-0.3405672289100999, 0.3458562434715832],
      [0.008931046433489694, -0.0035771300743516104],
      [-0.012704849984857337, 0.009693967081580112]
    ],
    "bias": [[0.44174148120959383, -0.44174148120959394]]
  }
}
